{
  "classes": [0, 1],
  "dot": "digraph DecisionTree {\n node [shape=box, style=\"filled, rounded\", color=\"black\", fontname=helvetica];\n edge [fontname=helvetica];\n 0 [label=<B12 &le; 1279.0000<br/>score = 0.0657>, fillcolor=\"#00000000\"];\n 1 [label=<B10 &le; 31.0000<br/>score = 0.0191>, fillcolor=\"#00000000\"];\n 0 -> 1 [labeldistance=2.5, labelangle=45, headlabel=\"True\"];\n 2 [label=<B10 &le; 34.0000<br/>score = 0.1481>, fillcolor=\"#00000000\"];\n 0 -> 2 [labeldistance=2.5, labelangle=-45, headlabel=\"False\"];\n 3 [label=<B1 &le; 2125.5000<br/>score = 0.0168>, fillcolor=\"#00000000\"];\n 1 -> 3;\n 4 [label=<B9 &le; 209.5000<br/>score = 0.0908>, fillcolor=\"#00000000\"];\n 1 -> 4;\n 5 [label=<B8 &le; 1936.5000<br/>score = 0.3086>, fillcolor=\"#00000000\"];\n 2 -> 5;\n 6 [label=<class = 0>, fillcolor=\"#00000000\", shape=ellipse];\n 2 -> 6;\n 7 [label=<B4 &le; 438.0000<br/>score = 0.0173>, fillcolor=\"#00000000\"];\n 3 -> 7;\n 8 [label=<class = 0>, fillcolor=\"#00000000\", shape=ellipse];\n 3 -> 8;\n 9 [label=<B1 &le; 1543.0000<br/>score = 0.4444>, fillcolor=\"#00000000\"];\n 4 -> 9;\n 10 [label=<B1 &le; 1407.5000<br/>score = 0.1467>, fillcolor=\"#00000000\"];\n 4 -> 10;\n 11 [label=<class = 0>, fillcolor=\"#00000000\", shape=ellipse];\n 5 -> 11;\n 12 [label=<B4 &le; 1852.5000<br/>score = 0.2778>, fillcolor=\"#00000000\"];\n 5 -> 12;\n 13 [label=<class = 0>, fillcolor=\"#00000000\", shape=ellipse];\n 7 -> 13;\n 14 [label=<B12 &le; 1138.5000<br/>score = 0.0028>, fillcolor=\"#00000000\"];\n 7 -> 14;\n 15 [label=<class = 1>, fillcolor=\"#00000000\", shape=ellipse];\n 9 -> 15;\n 16 [label=<class = 0>, fillcolor=\"#00000000\", shape=ellipse];\n 9 -> 16;\n 17 [label=<class = 0>, fillcolor=\"#00000000\", shape=ellipse];\n 10 -> 17;\n 18 [label=<B1 &le; 1929.0000<br/>score = 0.0973>, fillcolor=\"#00000000\"];\n 10 -> 18;\n 19 [label=<class = 1>, fillcolor=\"#00000000\", shape=ellipse];\n 12 -> 19;\n 20 [label=<class = 0>, fillcolor=\"#00000000\", shape=ellipse];\n 12 -> 20;\n 21 [label=<B2 &le; 1100.5000<br/>score = 0.0018>, fillcolor=\"#00000000\"];\n 14 -> 21;\n 22 [label=<B3 &le; 1065.0000<br/>score = 0.1422>, fillcolor=\"#00000000\"];\n 14 -> 22;\n 23 [label=<B11 &le; 2040.0000<br/>score = 0.1172>, fillcolor=\"#00000000\"];\n 18 -> 23;\n 24 [label=<class = 0>, fillcolor=\"#00000000\", shape=ellipse];\n 18 -> 24;\n 25 [label=<B2 &le; 1097.5000<br/>score = 0.0530>, fillcolor=\"#00000000\"];\n 21 -> 25;\n 26 [label=<B12 &le; 347.5000<br/>score = 0.0033>, fillcolor=\"#00000000\"];\n 21 -> 26;\n 27 [label=<class = 0>, fillcolor=\"#00000000\", shape=ellipse];\n 22 -> 27;\n 28 [label=<B12 &le; 1140.5000<br/>score = 0.1975>, fillcolor=\"#00000000\"];\n 22 -> 28;\n 29 [label=<class = 1>, fillcolor=\"#00000000\", shape=ellipse];\n 23 -> 29;\n 30 [label=<class = 0>, fillcolor=\"#00000000\", shape=ellipse];\n 23 -> 30;\n 31 [label=<B9 &le; 198.0000<br/>score = 0.0151>, fillcolor=\"#00000000\"];\n 25 -> 31;\n 32 [label=<class = 0>, fillcolor=\"#00000000\", shape=ellipse];\n 25 -> 32;\n 33 [label=<B5 &le; 972.5000<br/>score = 0.1578>, fillcolor=\"#00000000\"];\n 26 -> 33;\n 34 [label=<class = 1>, fillcolor=\"#00000000\", shape=ellipse];\n 26 -> 34;\n 35 [label=<class = 0>, fillcolor=\"#00000000\", shape=ellipse];\n 28 -> 35;\n 36 [label=<class = 1>, fillcolor=\"#00000000\", shape=ellipse];\n 28 -> 36;\n 37 [label=<class = 1>, fillcolor=\"#00000000\", shape=ellipse];\n 31 -> 37;\n 38 [label=<B11 &le; 1579.0000<br/>score = 0.2975>, fillcolor=\"#00000000\"];\n 31 -> 38;\n 39 [label=<class = 1>, fillcolor=\"#00000000\", shape=ellipse];\n 33 -> 39;\n 40 [label=<B3 &le; 1492.0000<br/>score = 0.4444>, fillcolor=\"#00000000\"];\n 33 -> 40;\n 41 [label=<class = 0>, fillcolor=\"#00000000\", shape=ellipse];\n 38 -> 41;\n 42 [label=<class = 1>, fillcolor=\"#00000000\", shape=ellipse];\n 38 -> 42;\n 43 [label=<class = 0>, fillcolor=\"#00000000\", shape=ellipse];\n 40 -> 43;\n 44 [label=<class = 1>, fillcolor=\"#00000000\", shape=ellipse];\n 40 -> 44;\n}",
  "importance": {
    "B1": 0.7052505334649599,
    "B10": 0.1671992687008812,
    "B11": 0.4147081611570248,
    "B12": 0.2693694661899732,
    "B2": 0.05477863900553806,
    "B3": 0.5866666666666666,
    "B4": 0.2950920525681937,
    "B5": 0.15779092702169625,
    "B6": 0,
    "B7": 0,
    "B8": 0.30864197530864196,
    "B8A": 0,
    "B9": 0.1058983695843795
  },
  "maxDepth": 10,
  "tree": "n= 274\nnode), split, n, loss, yval, (yprob)\n* denotes terminal node\n1) root 274 69.730 1 (0.15217 0.84783)\n 2) B12<=1279.00 244 38.385 1 (0.089431 0.91057)\n  4) B10<=31.0000 216 20.880 1 (0.055046 0.94495)\n   8) B1<=2125.50 214 17.243 1 (0.046296 0.95370)\n    16) B4<=438.000 2 0.0000 0 (0.75000 0.25000) *\n    17) B4>438.000 212 13.538 1 (0.037383 0.96262)\n     34) B12<=1138.50 202 9.7525 1 (0.029412 0.97059)\n      68) B2<=1100.50 32 5.4375 1 (0.11765 0.88235)\n       136) B2<=1097.50 31 3.7419 1 (0.090909 0.90909)\n        272) B9<=198.000 20 0.0000 1 (0.045455 0.95455) *\n        273) B9>198.000 11 3.2727 1 (0.23077 0.76923)\n         546) B11<=1579.00 2 0.0000 0 (0.75000 0.25000) *\n         547) B11>1579.00 9 0.0000 1 (0.090909 0.90909) *\n       137) B2>1097.50 1 0.0000 0 (0.66667 0.33333) *\n      69) B2>1100.50 170 3.9529 1 (0.017442 0.98256)\n       138) B12<=347.500 13 3.3846 1 (0.20000 0.80000)\n        276) B5<=972.500 10 0.0000 1 (0.083333 0.91667) *\n        277) B5>972.500 3 1.3333 0 (0.60000 0.40000)\n         554) B3<=1492.00 2 0.0000 0 (0.75000 0.25000) *\n         555) B3>1492.00 1 0.0000 1 (0.33333 0.66667) *\n       139) B12>347.500 157 0.0000 1 (0.0062893 0.99371) *\n     35) B12>1138.50 10 3.2000 1 (0.25000 0.75000)\n      70) B3<=1065.00 1 0.0000 0 (0.66667 0.33333) *\n      71) B3>1065.00 9 1.7778 1 (0.18182 0.81818)\n       142) B12<=1140.50 1 0.0000 0 (0.66667 0.33333) *\n       143) B12>1140.50 8 0.0000 1 (0.10000 0.90000) *\n   9) B1>2125.50 2 0.0000 0 (0.75000 0.25000) *\n  5) B10>31.0000 28 12.857 1 (0.36667 0.63333)\n   10) B9<=209.500 9 4.0000 0 (0.63636 0.36364)\n    20) B1<=1543.00 3 0.0000 1 (0.20000 0.80000) *\n    21) B1>1543.00 6 0.0000 0 (0.87500 0.12500) *\n   11) B9>209.500 19 6.3158 1 (0.23810 0.76190)\n    22) B1<=1407.50 2 0.0000 0 (0.75000 0.25000) *\n    23) B1>1407.50 17 3.5294 1 (0.15789 0.84211)\n     46) B1<=1929.00 16 1.8750 1 (0.11111 0.88889)\n      92) B11<=2040.00 15 0.0000 1 (0.058824 0.94118) *\n      93) B11>2040.00 1 0.0000 0 (0.66667 0.33333) *\n     47) B1>1929.00 1 0.0000 0 (0.66667 0.33333) *\n 3) B12>1279.00 30 13.333 0 (0.65625 0.34375)\n  6) B10<=34.0000 18 8.8889 1 (0.45000 0.55000)\n   12) B8<=1936.50 6 0.0000 0 (0.87500 0.12500) *\n   13) B8>1936.50 12 3.3333 1 (0.21429 0.78571)\n    26) B4<=1852.50 10 0.0000 1 (0.083333 0.91667) *\n    27) B4>1852.50 2 0.0000 0 (0.75000 0.25000) *\n  7) B10>34.0000 12 0.0000 0 (0.92857 0.071429) *\n"
}
