{"classes":[0,1],"importance":{"B1":3.364168691271178,"B10":0.7759394207745856,"B11":3.20156009060826,"B12":3.5696194997484714,"B2":0.9963114582350489,"B3":2.6098896336759374,"B4":4.1685371359873375,"B5":2.416449789176107,"B6":2.824563462244119,"B7":2.1737413559112793,"B8":3.150928105195616,"B8A":3.6365092108458064,"B9":2.0659156807256496},"numberOfTrees":10,"outOfBagErrorEstimate":0.12218649517684887,"trees":["n= 156\nnode), split, n, loss, yval, (yprob)\n* denotes terminal node\n1) root 156 44.654 1 (0.17722 0.82278)\n 2) B7<=1497.00 16 6.0000 0 (0.72222 0.27778)\n  4) B1<=1382.50 1 0.0000 1 (0.33333 0.66667) *\n  5) B1>1382.50 15 4.8000 0 (0.76471 0.23529)\n   10) B10<=8.00000 4 2.0000 0 (0.50000 0.50000)\n    20) B5<=727.000 1 0.0000 0 (0.66667 0.33333) *\n    21) B5>727.000 3 1.3333 1 (0.40000 0.60000)\n     42) B12<=795.500 2 0.0000 1 (0.25000 0.75000) *\n     43) B12>795.500 1 0.0000 0 (0.66667 0.33333) *\n   11) B10>8.00000 11 1.8182 0 (0.84615 0.15385)\n    22) B4<=755.000 1 0.0000 1 (0.33333 0.66667) *\n    23) B4>755.000 10 0.0000 0 (0.91667 0.083333) *\n 3) B7>1497.00 140 26.786 1 (0.11268 0.88732)\n  6) B1<=1829.00 136 20.221 1 (0.086957 0.91304)\n   12) B4<=459.500 3 0.0000 0 (0.80000 0.20000) *\n   13) B4>459.500 133 15.038 1 (0.066667 0.93333)\n    26) B4<=1343.50 128 9.6094 1 (0.046154 0.95385)\n     52) B2<=1310.00 92 0.0000 1 (0.010638 0.98936) *\n     53) B2>1310.00 36 8.6111 1 (0.15789 0.84211)\n      106) B2<=1315.00 1 0.0000 0 (0.66667 0.33333) *\n      107) B2>1315.00 35 7.0857 1 (0.13514 0.86486)\n       214) B8<=1572.00 1 0.0000 0 (0.66667 0.33333) *\n       215) B8>1572.00 34 5.4706 1 (0.11111 0.88889)\n        430) B8A<=2236.50 10 3.2000 1 (0.25000 0.75000)\n         860) B6<=1801.00 9 1.7778 1 (0.18182 0.81818)\n          1720) B3<=1172.50 3 1.3333 1 (0.40000 0.60000)\n           3440) B8<=1826.00 2 0.0000 1 (0.25000 0.75000) *\n           3441) B8>1826.00 1 0.0000 0 (0.66667 0.33333) *\n          1721) B3>1172.50 6 0.0000 1 (0.12500 0.87500) *\n         861) B6>1801.00 1 0.0000 0 (0.66667 0.33333) *\n        431) B8A>2236.50 24 1.9167 1 (0.076923 0.92308)\n         862) B7<=2462.50 17 0.0000 1 (0.052632 0.94737) *\n         863) B7>2462.50 7 1.7143 1 (0.22222 0.77778)\n          1726) B3<=1121.00 1 0.0000 0 (0.66667 0.33333) *\n          1727) B3>1121.00 6 0.0000 1 (0.12500 0.87500) *\n    27) B4>1343.50 5 2.4000 0 (0.57143 0.42857)\n     54) B1<=1638.00 3 0.0000 0 (0.80000 0.20000) *\n     55) B1>1638.00 2 0.0000 1 (0.25000 0.75000) *\n  7) B1>1829.00 4 0.0000 0 (0.83333 0.16667) *\n","n= 156\nnode), split, n, loss, yval, (yprob)\n* denotes terminal node\n1) root 156 44.654 1 (0.17722 0.82278)\n 2) B8<=1537.50 27 13.333 0 (0.55172 0.44828)\n  4) B4<=1031.00 17 7.7647 1 (0.36842 0.63158)\n   8) B8<=1132.00 7 2.8571 0 (0.66667 0.33333)\n    16) B3<=909.000 1 0.0000 1 (0.33333 0.66667) *\n    17) B3>909.000 6 1.6667 0 (0.75000 0.25000)\n     34) B8A<=841.500 3 0.0000 0 (0.80000 0.20000) *\n     35) B8A>841.500 3 1.3333 0 (0.60000 0.40000)\n      70) B8<=894.000 1 0.0000 1 (0.33333 0.66667) *\n      71) B8>894.000 2 0.0000 0 (0.75000 0.25000) *\n   9) B8>1132.00 10 1.8000 1 (0.16667 0.83333)\n    18) B8A<=1640.50 7 0.0000 1 (0.11111 0.88889) *\n    19) B8A>1640.50 3 1.3333 1 (0.40000 0.60000)\n     38) B8A<=1731.00 1 0.0000 0 (0.66667 0.33333) *\n     39) B8A>1731.00 2 0.0000 1 (0.25000 0.75000) *\n  5) B4>1031.00 10 1.8000 0 (0.83333 0.16667)\n   10) B9<=450.500 9 0.0000 0 (0.90909 0.090909) *\n   11) B9>450.500 1 0.0000 1 (0.33333 0.66667) *\n 3) B8>1537.50 129 21.767 1 (0.099237 0.90076)\n  6) B8A<=2219.50 37 11.351 1 (0.20513 0.79487)\n   12) B7<=2137.50 35 8.5714 1 (0.16216 0.83784)\n    24) B12<=1167.00 31 3.7419 1 (0.090909 0.90909)\n     48) B4<=675.500 3 1.3333 0 (0.60000 0.40000)\n      96) B11<=1102.00 2 0.0000 0 (0.75000 0.25000) *\n      97) B11>1102.00 1 0.0000 1 (0.33333 0.66667) *\n     49) B4>675.500 28 0.0000 1 (0.033333 0.96667) *\n    25) B12>1167.00 4 1.5000 0 (0.66667 0.33333)\n     50) B2<=1298.00 2 1.0000 0 (0.50000 0.50000)\n      100) B5<=1088.00 1 0.0000 0 (0.66667 0.33333) *\n      101) B5>1088.00 1 0.0000 1 (0.33333 0.66667) *\n     51) B2>1298.00 2 0.0000 0 (0.75000 0.25000) *\n   13) B7>2137.50 2 0.0000 0 (0.75000 0.25000) *\n  7) B8A>2219.50 92 9.4565 1 (0.063830 0.93617)\n   14) B4<=459.500 2 0.0000 0 (0.75000 0.25000) *\n   15) B4>459.500 90 5.8000 1 (0.043478 0.95652)\n    30) B5<=1723.00 89 3.9101 1 (0.032967 0.96703)\n     60) B1<=1689.50 81 1.9753 1 (0.024096 0.97590)\n      120) B7<=2257.50 23 1.9130 1 (0.080000 0.92000)\n       240) B8A<=2443.00 22 0.0000 1 (0.041667 0.95833) *\n       241) B8A>2443.00 1 0.0000 0 (0.66667 0.33333) *\n      121) B7>2257.50 58 0.0000 1 (0.016667 0.98333) *\n     61) B1>1689.50 8 1.7500 1 (0.20000 0.80000)\n      122) B8A<=2651.50 6 0.0000 1 (0.12500 0.87500) *\n      123) B8A>2651.50 2 1.0000 0 (0.50000 0.50000)\n       246) B1<=1708.00 1 0.0000 0 (0.66667 0.33333) *\n       247) B1>1708.00 1 0.0000 1 (0.33333 0.66667) *\n    31) B5>1723.00 1 0.0000 0 (0.66667 0.33333) *\n","n= 156\nnode), split, n, loss, yval, (yprob)\n* denotes terminal node\n1) root 156 44.654 1 (0.17722 0.82278)\n 2) B3<=1301.00 143 32.951 1 (0.13793 0.86207)\n  4) B8<=1236.50 5 1.6000 0 (0.71429 0.28571)\n   8) B11<=887.500 1 0.0000 1 (0.33333 0.66667) *\n   9) B11>887.500 4 0.0000 0 (0.83333 0.16667) *\n  5) B8>1236.50 138 26.739 1 (0.11429 0.88571)\n   10) B3<=771.000 3 0.0000 0 (0.80000 0.20000) *\n   11) B3>771.000 135 21.867 1 (0.094891 0.90511)\n    22) B12<=434.000 2 0.0000 0 (0.75000 0.25000) *\n    23) B12>434.000 133 18.496 1 (0.081481 0.91852)\n     46) B5<=1416.50 131 16.763 1 (0.075188 0.92481)\n      92) B12<=1105.00 113 9.5575 1 (0.052174 0.94783)\n       184) B5<=1012.50 51 9.0196 1 (0.11321 0.88679)\n        368) B4<=789.500 35 1.9429 1 (0.054054 0.94595)\n         736) B11<=1075.00 4 1.5000 1 (0.33333 0.66667)\n          1472) B4<=654.500 1 0.0000 0 (0.66667 0.33333) *\n          1473) B4>654.500 3 0.0000 1 (0.20000 0.80000) *\n         737) B11>1075.00 31 0.0000 1 (0.030303 0.96970) *\n        369) B4>789.500 16 6.0000 1 (0.27778 0.72222)\n         738) B6<=1845.00 11 1.8182 1 (0.15385 0.84615)\n          1476) B5<=965.500 2 1.0000 0 (0.50000 0.50000)\n           2952) B2<=1262.00 1 0.0000 0 (0.66667 0.33333) *\n           2953) B2>1262.00 1 0.0000 1 (0.33333 0.66667) *\n          1477) B5>965.500 9 0.0000 1 (0.090909 0.90909) *\n         739) B6>1845.00 5 2.4000 0 (0.57143 0.42857)\n          1478) B6<=2005.00 3 0.0000 0 (0.80000 0.20000) *\n          1479) B6>2005.00 2 0.0000 1 (0.25000 0.75000) *\n       185) B5>1012.50 62 0.0000 1 (0.015625 0.98438) *\n      93) B12>1105.00 18 6.2222 1 (0.25000 0.75000)\n       186) B8A<=1582.00 1 0.0000 0 (0.66667 0.33333) *\n       187) B8A>1582.00 17 4.9412 1 (0.21053 0.78947)\n        374) B12<=1125.00 1 0.0000 0 (0.66667 0.33333) *\n        375) B12>1125.00 16 3.5000 1 (0.16667 0.83333)\n         750) B8<=1820.50 7 2.8571 1 (0.33333 0.66667)\n          1500) B9<=393.500 2 0.0000 0 (0.75000 0.25000) *\n          1501) B9>393.500 5 0.0000 1 (0.14286 0.85714) *\n         751) B8>1820.50 9 0.0000 1 (0.090909 0.90909) *\n     47) B5>1416.50 2 1.0000 0 (0.50000 0.50000)\n      94) B8A<=2986.50 1 0.0000 0 (0.66667 0.33333) *\n      95) B8A>2986.50 1 0.0000 1 (0.33333 0.66667) *\n 3) B3>1301.00 13 6.1538 0 (0.60000 0.40000)\n  6) B3<=1494.50 10 5.0000 0 (0.50000 0.50000)\n   12) B8A<=2212.50 8 3.7500 0 (0.60000 0.40000)\n    24) B12<=56.0000 1 0.0000 1 (0.33333 0.66667) *\n    25) B12>56.0000 7 2.8571 0 (0.66667 0.33333)\n     50) B4<=1199.50 4 2.0000 0 (0.50000 0.50000)\n      100) B1<=1787.50 2 0.0000 0 (0.75000 0.25000) *\n      101) B1>1787.50 2 0.0000 1 (0.25000 0.75000) *\n     51) B4>1199.50 3 0.0000 0 (0.80000 0.20000) *\n   13) B8A>2212.50 2 0.0000 1 (0.25000 0.75000) *\n  7) B3>1494.50 3 0.0000 0 (0.80000 0.20000) *\n","n= 156\nnode), split, n, loss, yval, (yprob)\n* denotes terminal node\n1) root 156 44.654 1 (0.17722 0.82278)\n 2) B1<=1822.00 147 33.088 1 (0.13423 0.86577)\n  4) B6<=1286.50 8 3.0000 0 (0.70000 0.30000)\n   8) B1<=1348.00 1 0.0000 1 (0.33333 0.66667) *\n   9) B1>1348.00 7 1.7143 0 (0.77778 0.22222)\n    18) B8A<=1464.50 6 0.0000 0 (0.87500 0.12500) *\n    19) B8A>1464.50 1 0.0000 1 (0.33333 0.66667) *\n  5) B6>1286.50 139 23.568 1 (0.099291 0.90071)\n   10) B12<=1338.00 132 16.773 1 (0.074627 0.92537)\n    20) B12<=435.500 5 2.4000 0 (0.57143 0.42857)\n     40) B4<=786.500 3 0.0000 0 (0.80000 0.20000) *\n     41) B4>786.500 2 0.0000 1 (0.25000 0.75000) *\n    21) B12>435.500 127 11.433 1 (0.054264 0.94574)\n     42) B5<=725.500 1 0.0000 0 (0.66667 0.33333) *\n     43) B5>725.500 126 9.6032 1 (0.046875 0.95313)\n      86) B3<=1316.50 124 7.7419 1 (0.039683 0.96032)\n       172) B8A<=2214.50 36 7.1111 1 (0.13158 0.86842)\n        344) B6<=1587.50 13 0.0000 1 (0.066667 0.93333) *\n        345) B6>1587.50 23 6.6087 1 (0.20000 0.80000)\n         690) B1<=1631.00 17 1.8824 1 (0.10526 0.89474)\n          1380) B9<=334.500 1 0.0000 0 (0.66667 0.33333) *\n          1381) B9>334.500 16 0.0000 1 (0.055556 0.94444) *\n         691) B1>1631.00 6 3.0000 0 (0.50000 0.50000)\n          1382) B3<=1164.50 2 0.0000 0 (0.75000 0.25000) *\n          1383) B3>1164.50 4 1.5000 1 (0.33333 0.66667)\n           2766) B1<=1638.50 1 0.0000 0 (0.66667 0.33333) *\n           2767) B1>1638.50 3 0.0000 1 (0.20000 0.80000) *\n       173) B8A>2214.50 88 0.0000 1 (0.011111 0.98889) *\n      87) B3>1316.50 2 1.0000 0 (0.50000 0.50000)\n       174) B8A<=2230.50 1 0.0000 0 (0.66667 0.33333) *\n       175) B8A>2230.50 1 0.0000 1 (0.33333 0.66667) *\n   11) B12>1338.00 7 3.4286 0 (0.55556 0.44444)\n    22) B8<=1764.00 3 0.0000 0 (0.80000 0.20000) *\n    23) B8>1764.00 4 1.5000 1 (0.33333 0.66667)\n     46) B8<=1871.50 3 0.0000 1 (0.20000 0.80000) *\n     47) B8>1871.50 1 0.0000 0 (0.66667 0.33333) *\n 3) B1>1822.00 9 1.7778 0 (0.81818 0.18182)\n  6) B11<=311.500 1 0.0000 1 (0.33333 0.66667) *\n  7) B11>311.500 8 0.0000 0 (0.90000 0.10000) *\n","n= 156\nnode), split, n, loss, yval, (yprob)\n* denotes terminal node\n1) root 156 44.654 1 (0.17722 0.82278)\n 2) B2<=1505.00 150 37.547 1 (0.15132 0.84868)\n  4) B1<=1136.00 2 0.0000 0 (0.75000 0.25000) *\n  5) B1>1136.00 148 34.595 1 (0.14000 0.86000)\n   10) B12<=376.000 7 2.8571 0 (0.66667 0.33333)\n    20) B11<=247.000 3 0.0000 0 (0.80000 0.20000) *\n    21) B11>247.000 4 2.0000 0 (0.50000 0.50000)\n     42) B3<=1105.50 2 0.0000 0 (0.75000 0.25000) *\n     43) B3>1105.50 2 0.0000 1 (0.25000 0.75000) *\n   11) B12>376.000 141 26.809 1 (0.11189 0.88811)\n    22) B6<=1311.50 7 2.8571 0 (0.66667 0.33333)\n     44) B11<=1019.00 2 0.0000 1 (0.25000 0.75000) *\n     45) B11>1019.00 5 0.0000 0 (0.85714 0.14286) *\n    23) B6>1311.50 134 18.507 1 (0.080882 0.91912)\n     46) B5<=1431.50 132 15.030 1 (0.067164 0.93284)\n      92) B12<=1549.50 131 13.252 1 (0.060150 0.93985)\n       184) B1<=1630.50 108 3.9259 1 (0.027273 0.97273)\n        368) B9<=368.000 12 3.3333 1 (0.21429 0.78571)\n         736) B10<=30.5000 11 1.8182 1 (0.15385 0.84615)\n          1472) B7<=1967.00 5 0.0000 1 (0.14286 0.85714) *\n          1473) B7>1967.00 6 1.6667 1 (0.25000 0.75000)\n           2946) B3<=1014.50 1 0.0000 0 (0.66667 0.33333) *\n           2947) B3>1014.50 5 0.0000 1 (0.14286 0.85714) *\n         737) B10>30.5000 1 0.0000 0 (0.66667 0.33333) *\n        369) B9>368.000 96 0.0000 1 (0.010204 0.98980) *\n       185) B1>1630.50 23 7.8261 1 (0.24000 0.76000)\n        370) B8A<=2214.50 7 3.4286 0 (0.55556 0.44444)\n         740) B8A<=1949.00 2 0.0000 1 (0.25000 0.75000) *\n         741) B8A>1949.00 5 1.6000 0 (0.71429 0.28571)\n          1482) B12<=1138.00 4 0.0000 0 (0.83333 0.16667) *\n          1483) B12>1138.00 1 0.0000 1 (0.33333 0.66667) *\n        371) B8A>2214.50 16 1.8750 1 (0.11111 0.88889)\n         742) B2<=1344.00 4 1.5000 1 (0.33333 0.66667)\n          1484) B12<=660.000 2 0.0000 1 (0.25000 0.75000) *\n          1485) B12>660.000 2 1.0000 0 (0.50000 0.50000)\n           2970) B5<=1049.50 1 0.0000 0 (0.66667 0.33333) *\n           2971) B5>1049.50 1 0.0000 1 (0.33333 0.66667) *\n         743) B2>1344.00 12 0.0000 1 (0.071429 0.92857) *\n      93) B12>1549.50 1 0.0000 0 (0.66667 0.33333) *\n     47) B5>1431.50 2 0.0000 0 (0.75000 0.25000) *\n 3) B2>1505.00 6 1.6667 0 (0.75000 0.25000)\n  6) B8<=2189.00 5 0.0000 0 (0.85714 0.14286) *\n  7) B8>2189.00 1 0.0000 1 (0.33333 0.66667) *\n","n= 156\nnode), split, n, loss, yval, (yprob)\n* denotes terminal node\n1) root 156 44.654 1 (0.17722 0.82278)\n 2) B8A<=1506.50 20 9.9000 0 (0.54545 0.45455)\n  4) B11<=1077.50 16 7.8750 1 (0.44444 0.55556)\n   8) B7<=1004.50 9 3.1111 0 (0.72727 0.27273)\n    16) B4<=1084.00 6 0.0000 0 (0.87500 0.12500) *\n    17) B4>1084.00 3 1.3333 1 (0.40000 0.60000)\n     34) B6<=628.500 1 0.0000 1 (0.33333 0.66667) *\n     35) B6>628.500 2 1.0000 0 (0.50000 0.50000)\n      70) B3<=1375.00 1 0.0000 0 (0.66667 0.33333) *\n      71) B3>1375.00 1 0.0000 1 (0.33333 0.66667) *\n   9) B7>1004.50 7 0.0000 1 (0.11111 0.88889) *\n  5) B11>1077.50 4 0.0000 0 (0.83333 0.16667) *\n 3) B8A>1506.50 136 28.235 1 (0.12319 0.87681)\n  6) B1<=1145.00 3 0.0000 0 (0.80000 0.20000) *\n  7) B1>1145.00 133 23.459 1 (0.10370 0.89630)\n   14) B12<=1480.50 129 18.450 1 (0.083969 0.91603)\n    28) B6<=1607.50 26 8.0769 1 (0.21429 0.78571)\n     56) B9<=447.000 9 4.4444 1 (0.45455 0.54545)\n      112) B8A<=2006.00 7 2.8571 1 (0.33333 0.66667)\n       224) B9<=372.500 5 2.4000 1 (0.42857 0.57143)\n        448) B4<=894.000 2 0.0000 1 (0.25000 0.75000) *\n        449) B4>894.000 3 1.3333 0 (0.60000 0.40000)\n         898) B12<=1231.50 2 0.0000 0 (0.75000 0.25000) *\n         899) B12>1231.50 1 0.0000 1 (0.33333 0.66667) *\n       225) B9>372.500 2 0.0000 1 (0.25000 0.75000) *\n      113) B8A>2006.00 2 0.0000 0 (0.75000 0.25000) *\n     57) B9>447.000 17 1.8824 1 (0.10526 0.89474)\n      114) B7<=1891.50 16 0.0000 1 (0.055556 0.94444) *\n      115) B7>1891.50 1 0.0000 0 (0.66667 0.33333) *\n    29) B6>1607.50 103 9.5146 1 (0.057143 0.94286)\n     58) B11<=923.000 2 0.0000 0 (0.75000 0.25000) *\n     59) B11>923.000 101 5.8218 1 (0.038835 0.96117)\n      118) B1<=1631.00 75 0.0000 1 (0.012987 0.98701) *\n      119) B1>1631.00 26 5.3077 1 (0.14286 0.85714)\n       238) B11<=1360.50 6 3.0000 0 (0.50000 0.50000)\n        476) B12<=716.500 4 1.5000 1 (0.33333 0.66667)\n         952) B1<=1697.50 1 0.0000 0 (0.66667 0.33333) *\n         953) B1>1697.50 3 0.0000 1 (0.20000 0.80000) *\n        477) B12>716.500 2 0.0000 0 (0.75000 0.25000) *\n       239) B11>1360.50 20 0.0000 1 (0.045455 0.95455) *\n   15) B12>1480.50 4 1.5000 0 (0.66667 0.33333)\n    30) B6<=1898.50 3 0.0000 0 (0.80000 0.20000) *\n    31) B6>1898.50 1 0.0000 1 (0.33333 0.66667) *\n","n= 156\nnode), split, n, loss, yval, (yprob)\n* denotes terminal node\n1) root 156 44.654 1 (0.17722 0.82278)\n 2) B8A<=1995.50 42 21.000 0 (0.50000 0.50000)\n  4) B12<=777.500 17 6.1176 1 (0.26316 0.73684)\n   8) B1<=1825.50 15 3.4667 1 (0.17647 0.82353)\n    16) B8A<=926.500 2 0.0000 0 (0.75000 0.25000) *\n    17) B8A>926.500 13 0.0000 1 (0.066667 0.93333) *\n   9) B1>1825.50 2 0.0000 0 (0.75000 0.25000) *\n  5) B12>777.500 25 10.880 0 (0.66667 0.33333)\n   10) B4<=1158.50 18 8.8889 0 (0.55000 0.45000)\n    20) B8<=1347.50 5 0.0000 0 (0.85714 0.14286) *\n    21) B8>1347.50 13 6.1538 1 (0.40000 0.60000)\n     42) B10<=53.5000 10 5.0000 0 (0.50000 0.50000)\n      84) B12<=925.500 2 0.0000 0 (0.75000 0.25000) *\n      85) B12>925.500 8 3.7500 1 (0.40000 0.60000)\n       170) B2<=1181.50 3 1.3333 0 (0.60000 0.40000)\n        340) B7<=1697.50 2 0.0000 0 (0.75000 0.25000) *\n        341) B7>1697.50 1 0.0000 1 (0.33333 0.66667) *\n       171) B2>1181.50 5 1.6000 1 (0.28571 0.71429)\n        342) B11<=1693.50 4 0.0000 1 (0.16667 0.83333) *\n        343) B11>1693.50 1 0.0000 0 (0.66667 0.33333) *\n     43) B10>53.5000 3 0.0000 1 (0.20000 0.80000) *\n   11) B4>1158.50 7 0.0000 0 (0.88889 0.11111) *\n 3) B8A>1995.50 114 11.368 1 (0.060345 0.93966)\n  6) B2<=1636.50 112 7.7143 1 (0.043860 0.95614)\n   12) B12<=435.500 1 0.0000 0 (0.66667 0.33333) *\n   13) B12>435.500 111 5.8378 1 (0.035398 0.96460)\n    26) B3<=771.000 1 0.0000 0 (0.66667 0.33333) *\n    27) B3>771.000 110 3.9273 1 (0.026786 0.97321)\n     54) B5<=1244.50 96 1.9792 1 (0.020408 0.97959)\n      108) B12<=670.000 25 1.9200 1 (0.074074 0.92593)\n       216) B8A<=2706.50 17 0.0000 1 (0.052632 0.94737) *\n       217) B8A>2706.50 8 1.7500 1 (0.20000 0.80000)\n        434) B3<=1102.00 6 0.0000 1 (0.12500 0.87500) *\n        435) B3>1102.00 2 1.0000 0 (0.50000 0.50000)\n         870) B4<=805.000 1 0.0000 1 (0.33333 0.66667) *\n         871) B4>805.000 1 0.0000 0 (0.66667 0.33333) *\n      109) B12>670.000 71 0.0000 1 (0.013699 0.98630) *\n     55) B5>1244.50 14 1.8571 1 (0.12500 0.87500)\n      110) B5<=1255.50 1 0.0000 0 (0.66667 0.33333) *\n      111) B5>1255.50 13 0.0000 1 (0.066667 0.93333) *\n  7) B2>1636.50 2 0.0000 0 (0.75000 0.25000) *\n","n= 156\nnode), split, n, loss, yval, (yprob)\n* denotes terminal node\n1) root 156 44.654 1 (0.17722 0.82278)\n 2) B7<=1672.00 23 10.435 0 (0.64000 0.36000)\n  4) B11<=1588.00 21 8.5714 0 (0.69565 0.30435)\n   8) B10<=116.000 20 7.5000 0 (0.72727 0.27273)\n    16) B9<=107.500 2 0.0000 1 (0.25000 0.75000) *\n    17) B9>107.500 18 5.0000 0 (0.80000 0.20000)\n     34) B4<=929.500 6 3.0000 0 (0.50000 0.50000)\n      68) B11<=1087.50 4 1.5000 1 (0.33333 0.66667)\n       136) B4<=885.500 2 1.0000 0 (0.50000 0.50000)\n        272) B7<=1032.00 1 0.0000 1 (0.33333 0.66667) *\n        273) B7>1032.00 1 0.0000 0 (0.66667 0.33333) *\n       137) B4>885.500 2 0.0000 1 (0.25000 0.75000) *\n      69) B11>1087.50 2 0.0000 0 (0.75000 0.25000) *\n     35) B4>929.500 12 0.0000 0 (0.92857 0.071429) *\n   9) B10>116.000 1 0.0000 1 (0.33333 0.66667) *\n  5) B11>1588.00 2 0.0000 1 (0.25000 0.75000) *\n 3) B7>1672.00 133 21.835 1 (0.096296 0.90370)\n  6) B3<=717.000 2 0.0000 0 (0.75000 0.25000) *\n  7) B3>717.000 131 18.473 1 (0.082707 0.91729)\n   14) B12<=1472.00 129 15.008 1 (0.068702 0.93130)\n    28) B12<=430.500 3 1.3333 0 (0.60000 0.40000)\n     56) B8<=1729.00 1 0.0000 1 (0.33333 0.66667) *\n     57) B8>1729.00 2 0.0000 0 (0.75000 0.25000) *\n    29) B12>430.500 126 11.429 1 (0.054688 0.94531)\n     58) B6<=1957.50 77 11.065 1 (0.088608 0.91139)\n      116) B6<=1952.50 76 9.3421 1 (0.076923 0.92308)\n       232) B7<=1739.00 8 3.0000 1 (0.30000 0.70000)\n        464) B9<=560.000 3 1.3333 0 (0.60000 0.40000)\n         928) B5<=1072.50 2 0.0000 0 (0.75000 0.25000) *\n         929) B5>1072.50 1 0.0000 1 (0.33333 0.66667) *\n        465) B9>560.000 5 0.0000 1 (0.14286 0.85714) *\n       233) B7>1739.00 68 5.7353 1 (0.057143 0.94286)\n        466) B8<=2163.00 57 1.9649 1 (0.033898 0.96610)\n         932) B4<=1098.50 54 0.0000 1 (0.017857 0.98214) *\n         933) B4>1098.50 3 1.3333 1 (0.40000 0.60000)\n          1866) B4<=1122.00 1 0.0000 0 (0.66667 0.33333) *\n          1867) B4>1122.00 2 0.0000 1 (0.25000 0.75000) *\n        467) B8>2163.00 11 3.2727 1 (0.23077 0.76923)\n         934) B9<=343.500 1 0.0000 0 (0.66667 0.33333) *\n         935) B9>343.500 10 1.8000 1 (0.16667 0.83333)\n          1870) B9<=550.500 6 0.0000 1 (0.12500 0.87500) *\n          1871) B9>550.500 4 1.5000 1 (0.33333 0.66667)\n           3742) B8<=2210.50 2 0.0000 1 (0.25000 0.75000) *\n           3743) B8>2210.50 2 1.0000 0 (0.50000 0.50000)\n            7486) B5<=1037.00 1 0.0000 0 (0.66667 0.33333) *\n            7487) B5>1037.00 1 0.0000 1 (0.33333 0.66667) *\n      117) B6>1952.50 1 0.0000 0 (0.66667 0.33333) *\n     59) B6>1957.50 49 0.0000 1 (0.019608 0.98039) *\n   15) B12>1472.00 2 0.0000 0 (0.75000 0.25000) *\n","n= 156\nnode), split, n, loss, yval, (yprob)\n* denotes terminal node\n1) root 156 44.654 1 (0.17722 0.82278)\n 2) B7<=1321.00 9 1.7778 0 (0.81818 0.18182)\n  4) B8<=744.500 4 1.5000 0 (0.66667 0.33333)\n   8) B6<=760.500 3 0.0000 0 (0.80000 0.20000) *\n   9) B6>760.500 1 0.0000 1 (0.33333 0.66667) *\n  5) B8>744.500 5 0.0000 0 (0.85714 0.14286) *\n 3) B7>1321.00 147 33.088 1 (0.13423 0.86577)\n  6) B3<=1310.00 139 23.568 1 (0.099291 0.90071)\n   12) B2<=824.500 1 0.0000 0 (0.66667 0.33333) *\n   13) B2>824.500 138 21.913 1 (0.092857 0.90714)\n    26) B9<=343.500 18 8.0000 1 (0.35000 0.65000)\n     52) B12<=892.000 10 0.0000 1 (0.083333 0.91667) *\n     53) B12>892.000 8 3.0000 0 (0.70000 0.30000)\n      106) B9<=194.000 2 0.0000 1 (0.25000 0.75000) *\n      107) B9>194.000 6 0.0000 0 (0.87500 0.12500) *\n    27) B9>343.500 120 11.400 1 (0.057377 0.94262)\n     54) B5<=898.000 11 4.3636 1 (0.30769 0.69231)\n      108) B3<=913.500 8 1.7500 1 (0.20000 0.80000)\n       216) B8A<=2973.00 7 0.0000 1 (0.11111 0.88889) *\n       217) B8A>2973.00 1 0.0000 0 (0.66667 0.33333) *\n      109) B3>913.500 3 1.3333 0 (0.60000 0.40000)\n       218) B7<=1685.50 1 0.0000 1 (0.33333 0.66667) *\n       219) B7>1685.50 2 0.0000 0 (0.75000 0.25000) *\n     55) B5>898.000 109 5.8349 1 (0.036036 0.96396)\n      110) B12<=1278.50 104 3.9231 1 (0.028302 0.97170)\n       220) B6<=1747.00 38 3.7895 1 (0.075000 0.92500)\n        440) B5<=1169.00 34 1.9412 1 (0.055556 0.94444)\n         880) B5<=958.500 7 1.7143 1 (0.22222 0.77778)\n          1760) B6<=1694.00 5 0.0000 1 (0.14286 0.85714) *\n          1761) B6>1694.00 2 1.0000 0 (0.50000 0.50000)\n           3522) B12<=754.500 1 0.0000 1 (0.33333 0.66667) *\n           3523) B12>754.500 1 0.0000 0 (0.66667 0.33333) *\n         881) B5>958.500 27 0.0000 1 (0.034483 0.96552) *\n        441) B5>1169.00 4 1.5000 1 (0.33333 0.66667)\n         882) B3<=1150.00 2 0.0000 1 (0.25000 0.75000) *\n         883) B3>1150.00 2 1.0000 0 (0.50000 0.50000)\n          1766) B6<=1692.50 1 0.0000 1 (0.33333 0.66667) *\n          1767) B6>1692.50 1 0.0000 0 (0.66667 0.33333) *\n       221) B6>1747.00 66 0.0000 1 (0.014706 0.98529) *\n      111) B12>1278.50 5 1.6000 1 (0.28571 0.71429)\n       222) B8A<=2019.50 1 0.0000 0 (0.66667 0.33333) *\n       223) B8A>2019.50 4 0.0000 1 (0.16667 0.83333) *\n  7) B3>1310.00 8 3.0000 0 (0.70000 0.30000)\n   14) B9<=211.000 1 0.0000 1 (0.33333 0.66667) *\n   15) B9>211.000 7 1.7143 0 (0.77778 0.22222)\n    30) B1<=1418.50 1 0.0000 1 (0.33333 0.66667) *\n    31) B1>1418.50 6 0.0000 0 (0.87500 0.12500) *\n","n= 156\nnode), split, n, loss, yval, (yprob)\n* denotes terminal node\n1) root 156 44.654 1 (0.17722 0.82278)\n 2) B6<=1182.50 8 1.7500 0 (0.80000 0.20000)\n  4) B7<=1004.50 5 0.0000 0 (0.85714 0.14286) *\n  5) B7>1004.50 3 1.3333 0 (0.60000 0.40000)\n   10) B12<=602.500 1 0.0000 1 (0.33333 0.66667) *\n   11) B12>602.500 2 0.0000 0 (0.75000 0.25000) *\n 3) B6>1182.50 148 34.595 1 (0.14000 0.86000)\n  6) B4<=1147.50 139 25.180 1 (0.10638 0.89362)\n   12) B4<=459.500 2 0.0000 0 (0.75000 0.25000) *\n   13) B4>459.500 137 21.898 1 (0.093525 0.90647)\n    26) B12<=1348.50 134 18.507 1 (0.080882 0.91912)\n     52) B8A<=2065.50 33 8.4848 1 (0.17143 0.82857)\n      104) B3<=1044.00 9 4.0000 1 (0.36364 0.63636)\n       208) B9<=503.000 5 2.4000 0 (0.57143 0.42857)\n        416) B1<=1519.50 3 1.3333 1 (0.40000 0.60000)\n         832) B10<=30.5000 2 0.0000 1 (0.25000 0.75000) *\n         833) B10>30.5000 1 0.0000 0 (0.66667 0.33333) *\n        417) B1>1519.50 2 0.0000 0 (0.75000 0.25000) *\n       209) B9>503.000 4 0.0000 1 (0.16667 0.83333) *\n      105) B3>1044.00 24 3.6667 1 (0.11538 0.88462)\n       210) B8<=1848.50 22 1.9091 1 (0.083333 0.91667)\n        420) B1<=1733.50 19 0.0000 1 (0.047619 0.95238) *\n        421) B1>1733.50 3 1.3333 1 (0.40000 0.60000)\n         842) B4<=963.500 1 0.0000 0 (0.66667 0.33333) *\n         843) B4>963.500 2 0.0000 1 (0.25000 0.75000) *\n       211) B8>1848.50 2 1.0000 0 (0.50000 0.50000)\n        422) B4<=940.000 1 0.0000 1 (0.33333 0.66667) *\n        423) B4>940.000 1 0.0000 0 (0.66667 0.33333) *\n     53) B8A>2065.50 101 9.5050 1 (0.058252 0.94175)\n      106) B12<=400.500 1 0.0000 0 (0.66667 0.33333) *\n      107) B12>400.500 100 7.6800 1 (0.049020 0.95098)\n       214) B12<=722.500 34 5.4706 1 (0.11111 0.88889)\n        428) B2<=1330.50 30 0.0000 1 (0.031250 0.96875) *\n        429) B2>1330.50 4 1.5000 0 (0.66667 0.33333)\n         858) B11<=1486.00 3 0.0000 0 (0.80000 0.20000) *\n         859) B11>1486.00 1 0.0000 1 (0.33333 0.66667) *\n       215) B12>722.500 66 1.9697 1 (0.029412 0.97059)\n        430) B8A<=2442.50 29 1.9310 1 (0.064516 0.93548)\n         860) B3<=1041.00 10 1.8000 1 (0.16667 0.83333)\n          1720) B8<=2134.50 9 0.0000 1 (0.090909 0.90909) *\n          1721) B8>2134.50 1 0.0000 0 (0.66667 0.33333) *\n         861) B3>1041.00 19 0.0000 1 (0.047619 0.95238) *\n        431) B8A>2442.50 37 0.0000 1 (0.025641 0.97436) *\n    27) B12>1348.50 3 1.3333 0 (0.60000 0.40000)\n     54) B11<=1895.50 2 0.0000 0 (0.75000 0.25000) *\n     55) B11>1895.50 1 0.0000 1 (0.33333 0.66667) *\n  7) B4>1147.50 9 4.0000 0 (0.63636 0.36364)\n   14) B6<=1830.00 6 0.0000 0 (0.87500 0.12500) *\n   15) B6>1830.00 3 0.0000 1 (0.20000 0.80000) *\n"]}